CC.Line,PC1,PC2,PC3,PC4,PC5,PC6,PC7,PC8,PC9,PC10,PC11,PC12,PC13,PC14,PC15,PC16,PC17,PC18,PC19,PC20,PC21,PC22,PC23,PC24,PC25,PC26,PC27,PC28,PC29,PC30,PC31,PC32,PC33,PC34,PC35,PC36,PC37,PC38,PC39,PC40,PC41,PC42,PC43,PC44,PC45,PC46,PC47,PC48,PC49,PC50,PC51,PC52,PC53,PC54,PC55,PC56,PC57,PC58,PC59
CC001cs,0.209311891,0.115083556,-0.08809155,-0.124370543,0.113488351,0.033957018,-0.064923032,-0.086033041,-0.128027494,0.159731767,0.048816768,0.005720622,-0.038000436,-0.064564762,0.157625172,0.113924708,-0.067741476,-0.075600098,0.042057677,-0.003192562,0.074591079,0.131972837,0.054601294,-0.028120954,0.016830728,0.106155672,-0.05898129,0.109715604,0.07886125,-0.023593128,-0.231807995,0.112149153,-0.143865805,0.135222061,-0.139660214,0.19013441,0.042482727,0.091452779,-0.147476883,0.265262571,-0.157169299,-0.255594689,-0.095078846,-0.073494062,-0.113399234,0.223499895,0.131562621,0.009506685,0.041921107,0.162310637,-0.26841219,0.309393323,-0.042269616,-0.214641149,0.03240967,0.13722252,-0.022117265,0.123050574,0.080450806
CC002cs,-0.152827494,0.066141533,-0.004698111,0.216832343,0.117848349,0.159584672,-0.04628466,-0.043881257,0.240514264,-0.006895239,0.025527723,0.147445564,0.25063441,-0.005878888,-0.164229421,0.139837964,0.061905935,0.041156352,-0.056441375,-0.160684857,0.009671689,0.051698438,-0.051647012,0.026586614,0.096563084,0.022962627,0.089752405,0.077531238,-0.118891221,0.055981137,-0.083720674,-0.024939703,-0.056508912,0.106484476,-0.117176627,-0.196616301,-0.125772242,0.083774691,0.098119838,0.30726875,-0.094685324,-0.063832196,0.320964772,-0.121963235,0.118161845,0.143958827,0.007827226,0.160555411,0.259337136,0.20829129,0.08089737,-0.008698432,0.236826333,0.068655481,0.048415938,-0.155170439,0.006807249,-0.109819274,0.028363176
CC003cs,-0.165489944,0.29604608,-0.003987223,0.042025834,-0.098821424,-0.027513438,0.066384423,-0.0262208,-0.064895515,-0.015975293,0.068669789,-0.103311976,0.09079077,0.145409312,-0.085898367,-0.017422295,-0.015065118,0.039979137,-0.05807818,0.051827252,0.22272173,0.018274667,0.173841311,-0.018939193,-0.079777425,-0.046064445,0.011414041,0.019827269,-0.105866378,0.087940879,0.071212924,-0.206638747,-0.027813929,0.069695605,0.045936577,0.034057225,0.020764048,-0.027930085,0.044210598,-0.11006438,-0.091597434,0.057305644,0.12141116,-0.144889985,0.070836519,-0.095182269,0.16633424,0.130289271,0.014669032,0.189404819,0.149968622,0.109330273,-0.390329291,0.097619291,0.231585784,0.372897437,-0.270114367,0.047607702,0.126017313
CC004cs,0.0199171,0.201977982,0.117946878,-0.094213604,0.019886586,-0.166157024,-0.146711659,-0.087327001,-0.253105948,-0.035038368,-0.015655948,0.186402747,0.105718779,-0.188460803,-0.146877549,-0.035495874,0.12225601,-0.019987736,-0.007158775,0.016337915,-0.202449127,-0.15746268,-0.105777152,-0.008440426,-0.045232619,0.333377981,0.283532793,0.130247333,0.007477496,0.092388929,0.046603019,-0.142771143,-0.062284211,-0.0831752,-0.036278295,0.078811524,-0.012900139,-0.088491386,0.242592726,-0.013963255,0.094788832,-0.033874386,-0.030041114,-0.121017012,-0.040481975,0.089020444,-0.425365231,0.129066233,-0.013343543,-0.047939212,-0.081670982,0.13974054,-0.090756651,0.083782648,-0.002696095,0.033626827,-0.008365261,0.06917842,-0.080843899
CC005cs,-0.047309178,0.350362843,0.033094578,-0.04682738,-0.05742832,0.079405384,-0.021083216,0.186490871,-0.083045746,-0.031034911,0.050383441,0.00532422,0.004072458,0.153930911,0.064722783,-0.019269138,-0.016405389,0.06362975,0.023841122,0.070317513,0.022555847,0.008202712,-0.105811405,-0.086155089,-0.17809217,0.012652618,0.098803971,-0.000218751,-0.134513488,0.027437893,0.002930777,0.072621549,-0.060231157,0.092813901,-0.017589945,0.003281901,-0.140601762,-0.061776052,-0.041048608,0.055830622,0.096493547,-0.063411146,-0.171170445,0.015435242,0.038139946,-0.078124424,0.205043045,-0.07776855,0.149974105,0.220018599,0.001884864,-0.070220731,-0.085255502,0.270665822,-0.457375961,-0.035245156,0.379329362,0.127663805,-0.164151822
CC006cs,0.059637563,0.110310602,0.165813155,0.047263674,0.087494657,0.241516869,-0.010729222,-0.28766374,0.163428062,0.283683858,0.117397809,0.128047963,0.169043062,0.051620345,-0.100892603,-0.102523165,-0.14273115,0.105189085,-0.023979125,0.17491318,0.051877751,-0.012547613,-0.029715091,0.123825814,-0.045145888,-0.133440069,-0.172999207,0.175325978,0.222523359,0.180654364,-0.053433373,0.037918666,0.002489487,-0.002543773,0.046816054,-0.117701541,0.1922671,0.073570605,0.001661066,-0.164100413,0.349827355,0.082434783,-0.001340325,0.054924871,-0.16573118,0.036326174,-0.102816464,-0.060604333,-0.048795095,0.123372856,0.118125991,0.138459567,-0.126222263,-0.08910398,-0.054907247,-0.117352462,0.110083834,0.050839242,0.033045475
CC007cs,0.059692236,0.019460186,-0.043549968,0.010853886,0.051175339,-0.243907653,0.264186113,0.082068136,0.061113315,-0.113183834,-0.028634604,0.21140045,0.150552705,0.01156988,0.080441656,0.054149509,-0.243307586,-0.181742873,-0.14341181,0.028218609,0.200793493,-0.229106088,0.326820227,-0.014516928,0.016866092,0.178021273,-0.042179479,0.029323962,-0.023884495,-0.171940118,-0.185475873,0.045180974,0.063334747,-0.078800861,0.164153153,-0.169729076,-0.013295679,-0.019837698,-0.009864463,0.234169646,0.105300724,0.279183034,-0.150899814,-0.124243421,0.053779173,-0.110239518,-0.096580455,-0.129390045,-0.068045201,0.113247228,0.008182197,0.140122658,0.074569867,0.036293849,0.040252307,-0.00778821,0.104805983,0.000847553,0.000878071
CC008cs,0.061872832,-0.120978158,0.103545864,-0.023151078,0.070710207,-0.082595456,-0.13341139,0.081287,-0.174054629,-0.00687701,-0.032319867,-0.043604004,0.076016157,0.072183975,0.316729997,-0.051381381,-0.246435283,0.276726553,-0.029265218,-0.377696671,0.001901288,0.033879343,-0.085443518,0.159738144,-0.125121749,-0.07167506,0.172591024,0.149406019,-0.120397633,-0.051775138,-0.054568171,-0.137107626,0.031049974,0.219228963,0.111049661,-0.277165458,-0.172803268,0.206298459,-0.227191292,-0.051949932,0.044453273,0.066112996,0.07713795,-0.006325245,-0.123021359,0.07708779,-0.124585441,0.080301797,-0.119038901,-0.069590452,-0.017278327,-0.014024455,-0.114575144,0.028876304,-0.000113384,0.025696472,0.003227369,0.022813082,0.072214722
CC009cs,0.134240354,0.193332376,-0.047474336,-0.026471406,0.156608137,-0.153996857,0.003742104,-0.256024328,-0.193832308,-0.020577973,0.276668343,-0.007658653,-0.193710497,-0.08206539,0.054700331,0.031991621,0.140969958,0.001148792,-0.018210562,0.053768533,0.034582624,-0.013110537,0.033741184,0.009833654,-0.07627473,-0.128957454,-0.016728018,0.074427078,0.114188718,-0.03714725,0.042038647,-0.050488098,-0.047875587,0.017128312,-0.068086627,-0.082768326,0.013698841,0.161465513,-0.021624874,0.156890213,-0.082656667,0.170818804,0.065596402,0.070242781,-0.030187819,-0.092459326,0.098451233,-0.010965814,-0.100899017,-0.13471624,0.243011416,0.090904034,0.262451053,0.279413335,-0.285730603,-0.111197327,-0.353769623,-0.001606054,0.023955039
CC010cs,0.068413053,-0.104474013,0.134615797,0.22695517,0.13886321,-0.032840856,0.021767598,-0.07647563,-0.199340809,-0.204404414,0.150660888,-0.018870357,-0.103653191,0.052079137,-0.15759158,0.225694507,-0.12662678,0.240054532,0.095926985,0.145829012,0.036238747,-0.124051649,-0.154587615,-0.060315692,-0.049185603,-0.141201823,0.061363047,0.035701411,-0.176796956,-0.314673333,-0.174955397,-0.06112909,-0.061882561,-0.162543251,-0.007702393,0.026800493,-0.029351856,0.096373422,0.132137957,-0.102874264,-0.049339206,-0.239681306,-0.052445717,0.01788183,-0.080087801,-0.146826491,-0.025855028,-0.257529305,0.186310344,0.066008202,0.137338889,0.120330127,-0.042109414,-0.116690375,0.170410894,-0.046626762,0.052314424,-0.038345853,-0.059566515
CC011cs,0.189855511,0.091547754,0.070787603,-0.144507607,-0.007571847,0.027826124,0.007786814,-0.209075799,0.122982459,-0.109216882,0.035561152,-0.147073708,0.042773627,-0.145529609,-0.05138161,0.181591495,-0.182335173,0.138313108,-0.082206614,-0.142104693,-0.181184544,-0.196682505,0.109519772,-0.089424907,0.169763224,0.10786809,-0.091229866,0.134765744,-0.036980844,0.125859268,0.044570432,0.175268378,-0.085977117,-0.031059944,0.274087181,0.197430741,-0.242110022,-0.076946239,0.021388633,-0.215103055,-0.146533252,0.068877826,0.099524919,-0.021586833,-0.239283783,-0.085723323,0.185445893,0.039597233,-7.95E-05,0.121003826,-0.10457689,-0.163616536,0.080011825,0.152362924,0.082287921,-0.114784742,0.005859127,0.110303314,0.061890612
CC012cs,-0.02261574,-0.178077162,0.114734579,0.174084933,0.320686358,0.109885503,-0.14983999,-0.013176264,-0.129399295,-0.104856417,0.087957274,0.023311377,-0.025484161,-0.063240384,0.008700323,0.053825211,-0.098630134,-0.077501989,-0.031322443,0.066217005,0.134324073,0.075138792,0.105934441,0.029787815,-0.03399347,0.027944215,-0.24877195,-0.042914905,-0.323816308,0.238130218,-0.02345429,0.105354356,-0.14990505,0.091042153,0.00014599,0.105955851,-0.124328257,-0.26787791,-0.048928066,-0.081060836,-0.020694711,0.119123838,-0.275148212,0.080899592,0.149898295,0.309163066,-0.158495273,0.070820089,-0.042396604,0.01955721,0.147342836,-0.079633766,-0.018768805,0.054043685,-0.059825467,0.031746409,-0.131822029,-0.041011152,-0.083512529
CC013cs,0.058538937,-0.099591933,0.108983662,0.135785073,-0.023371721,-0.229062039,0.175198481,-0.124250969,0.106212348,-0.021921473,0.097218353,0.105292561,-0.200404456,0.354604658,-0.048003122,-0.09679538,-0.09103894,-0.065501304,0.030923906,-0.058559279,-0.086598064,-0.068513859,0.061080286,0.277068421,-0.103719065,0.055373965,0.018060562,-0.307448547,0.111227928,0.29750654,0.003436188,-0.235017025,-0.128893893,-0.125480625,0.058901659,0.069087649,-0.107180219,0.122365512,-0.0093488,0.095188922,-0.006508782,-0.058567601,-0.047321853,0.030424051,-0.185475548,0.128137424,0.01237675,0.004082194,0.276291951,0.048772557,-0.18553417,-0.104477967,0.00647725,0.017163395,-0.069163192,0.053885434,-0.074264058,-0.00222394,-0.037659615
CC015cs,0.082518314,0.260342142,-0.006787457,-0.176863758,0.071364072,0.113657408,0.039314387,-0.011522848,0.263615712,-0.145908898,0.128038653,0.013733177,-0.148396311,0.132786833,-0.025777589,0.047659548,-0.167847569,0.038141751,-0.046783709,0.11123314,-0.068645348,0.04054476,-0.052958936,0.003794496,-0.157847225,-0.024299297,0.091004183,-0.076142204,-0.038932598,0.020604608,-0.229505447,-0.038199304,-0.068873651,-0.038405266,-0.008579927,-0.039227795,0.085686386,-0.038794453,0.063460734,-0.016370809,-0.129159195,-0.00799703,0.095476273,-0.240034737,0.162291193,0.30753353,-0.005412757,-0.120739429,-0.214273597,-0.445200557,0.04663042,-0.112779587,0.003193759,0.064891753,0.124665281,0.048699273,0.19521273,0.037107799,0.121719615
CC016cs,0.147860536,-0.058483737,0.022335542,-0.080617039,0.155308875,-0.226657979,-0.074417882,0.097293565,0.048019697,0.116861727,0.018643912,-0.131882285,0.272074274,0.061725374,-0.180211797,-0.005800566,0.040940747,0.25488289,0.091862989,-0.031853283,-0.029525138,0.072258557,-0.137181818,-0.082431662,-0.337669443,0.15173578,-0.311629633,-0.159226907,-1.83E-05,-0.09986759,0.022868405,0.035321312,-0.070398771,0.084407034,0.036380935,0.033692926,-0.057758457,-0.241872616,0.095605876,0.22820329,0.260646602,0.084873524,0.197769588,0.07787766,0.019759157,-0.071144145,0.1245738,-0.096657092,0.04176661,-0.153523905,-0.115253799,0.04209788,0.032733416,-0.000829646,0.065617659,0.089945503,-0.102200717,0.039691474,-0.005668066
CC017cs,-0.162722325,0.10943128,-0.014031612,0.203274387,-0.099851994,-0.136890547,0.148920075,-0.148088095,-0.089170459,-0.04945432,0.012492415,0.033796782,0.126875572,0.031945098,-0.029042246,0.239412888,0.105419408,0.008923668,0.235310877,-0.048097332,-0.065872243,0.142581653,0.263887122,0.098682282,-0.152697207,-0.208828797,0.014079233,0.197420719,0.141979147,-0.175159044,-0.017508082,0.294621561,0.127517597,0.012446382,-0.022060894,0.053032181,-0.085318068,-0.167721788,-0.035461264,-0.013195835,0.103130504,-0.066160902,-0.000573594,-0.180205779,-0.19258328,0.142002851,-0.116870028,0.033947239,0.009726431,-0.118444277,-0.066280995,-0.282025822,-0.019104406,-0.055052075,-0.145005221,0.167378921,-0.001684595,-0.124185477,0.03526802
CC018cs,-0.083482072,0.322273044,0.031595887,0.10559202,-0.078610256,-0.070091731,0.01264966,0.154940881,0.076893699,-0.033834544,0.099381244,0.051075618,0.065487934,0.007496977,0.110341829,0.22568314,0.048644589,-0.059916464,-0.099933849,-0.101119624,-0.040773569,0.113427769,0.010643854,-0.008671762,0.041814535,-0.131891569,-0.085948032,-0.059092994,-0.0936683,0.038113692,0.225637564,0.014431746,0.048282358,-0.139774971,0.172678605,0.022040832,-0.172130425,0.046570656,-0.075250992,-0.189536812,0.040168206,0.043608242,0.034012136,0.114488296,0.145115632,0.129452507,-0.03792888,-0.125696617,0.132397952,-0.220769322,-0.210621005,0.434604815,-0.055924806,-0.194645165,-0.050312164,-0.258649102,-0.115156501,-0.018013243,-0.024098802
CC019cs,-0.162229774,0.137615207,-0.151142406,-0.019467293,0.137232752,0.132562234,-0.148768548,0.290510698,0.15403892,-0.116033414,-0.011772991,0.117608168,-0.069138072,0.101297457,-0.066487334,0.027743458,-0.03208676,0.206722854,-0.056774094,0.074771415,-0.025459114,-0.038992146,0.12643673,0.100357479,-0.098720863,0.07203214,0.079502938,0.070734127,-0.044288299,0.126324009,-0.157273518,0.093904587,0.025276016,0.134033411,-0.026365495,-0.057475741,0.103572242,0.045350939,0.158969655,-0.03135652,0.051649735,-0.110299818,-0.30614848,0.044836331,-0.185498311,-0.315697126,-0.002476334,0.098368163,-0.033076998,-0.086196332,-0.212625228,-0.071291296,0.101631971,-0.102569637,-0.012440202,-0.112772789,-0.362843578,-0.03682958,0.130917699
CC021cs,0.137093943,-0.053749138,0.109491482,0.072529733,-0.022681612,0.013462489,0.162855212,0.039993178,0.057577526,-0.109356933,-0.039505474,0.177079385,-0.01214746,-0.12464468,0.02638079,-0.061000378,0.191908866,-0.056818586,-0.127283342,0.123908999,-0.084684864,-0.108370949,0.040339877,0.373364181,-0.056746625,0.154536154,-0.070747112,0.192910816,-0.053529172,-0.175505685,-0.033930529,0.056782549,-0.21950518,0.231547709,0.116686041,0.17002515,-0.029504506,0.193165165,-0.100632494,-0.175256925,0.186745778,-0.181726857,0.1186276,0.079348547,0.323124322,-0.085866118,0.145706375,0.127015299,0.083907723,-0.131815759,0.066216165,-0.027657347,0.027290366,-0.037194437,-0.054444408,0.140514254,0.026531102,0.053641249,0.079340446
CC022cs,-0.005644996,-0.036274018,0.027109514,-0.096938641,-0.205241695,-0.199037436,-0.078784537,-0.147506062,0.271398736,0.18383909,0.034544737,0.297078044,-0.291873176,0.085065926,0.148938756,0.102153072,-0.080905469,0.106115014,0.077283781,-0.198361829,0.170863626,-0.177433257,-0.098550465,-0.028075009,-0.05366589,-0.0552697,0.053822727,-0.056760288,-0.137886374,0.044227681,0.042705231,0.292462824,0.065119107,-0.010876896,-0.134742829,0.07396977,-0.081440097,-0.185860211,0.036333243,-0.007625449,0.132218223,-0.254366681,0.056575975,0.04093656,0.136073615,-0.084451229,-0.063648858,0.101852113,-0.176891813,0.090738946,0.148667282,0.141949384,0.026851291,0.068753731,0.061350349,0.050432827,-0.085112397,-0.011454728,-0.060026413
CC023cs,-0.146703192,-0.074492917,-0.224749099,0.070123975,0.18824225,-0.015053801,-0.062760247,-0.154639194,-0.118980623,0.070917737,-0.150938666,-0.054719211,-0.153758355,0.171875843,-0.088748581,0.137600064,0.068110737,-0.186997555,-0.234599514,-0.053720718,-0.078606255,0.025188969,0.046808154,0.004900009,0.156394825,-0.044338255,0.148128581,-0.040018282,-0.196017634,0.03526676,0.080634791,0.004920948,-0.251531249,0.08880643,0.008166288,-0.032140482,-0.099523715,0.0447181,0.220891874,-0.008414411,0.328134432,0.025731857,0.171172558,-0.044604406,-0.122039714,-0.020838464,0.148940194,-0.23253159,-0.32216013,0.021478903,-0.089279777,0.045296784,-0.00958245,-0.113452959,-0.100342265,0.105267341,0.107342998,-0.015482737,0.043983796
CC024cs,-0.081586208,0.215101411,0.109216525,0.180144712,0.016487073,-0.101285008,-0.113653184,0.006448878,0.109377187,-0.108303557,0.14645694,-0.052502339,0.04929165,-0.057395508,0.010145193,-0.001126045,-0.086094426,-0.258250858,0.042647199,-0.171140824,-0.123873357,-0.105930787,-0.104748144,0.118601456,0.078489378,-0.107555753,0.047255353,-0.084224013,0.050535321,-0.295304827,0.109870793,-0.130520567,-0.121231683,0.182265819,0.097166593,-0.059119536,0.307385139,-0.265355093,0.001685057,0.095106232,0.037585101,-0.1076645,-0.16581042,0.332979922,-0.127761565,0.115034254,0.106950776,0.088933305,-0.139243691,0.091430585,-0.001645115,-0.045165614,0.038478563,0.072808778,0.174248481,-0.034981559,0.046808996,0.094818234,0.091215156
CC025cs,-0.10705048,-0.03360201,0.057534096,0.258395281,0.014835126,0.057544912,-0.095080908,0.12396453,-0.234864902,-0.020682294,0.098861491,0.036941164,-0.314203263,-0.192996075,0.031963878,0.266478741,-0.170032761,0.091261778,0.06258746,0.043732235,0.02449311,-0.091381563,0.035587028,-0.079450131,0.059990009,0.09032166,-0.146437053,-0.091245213,0.288189654,0.214105501,0.076530557,0.040638342,-0.017558664,-0.002135167,0.154785182,-0.190173023,0.141369362,-0.040529744,-0.027899706,0.172642593,0.050208418,-0.064579459,0.250294991,-0.05886714,0.199474193,-0.158853406,-0.038600156,0.106496413,-0.003134713,-0.054250921,-0.14530376,-0.084848243,-0.146734864,0.004865008,-0.050691827,0.017611822,0.139998409,0.127364645,0.149345525
CC027cs,0.002392062,-0.093441377,-0.362868162,0.017432306,-0.121495067,-0.012701996,-0.131673495,-0.0063071,0.057847321,0.094598113,0.122180091,0.002907887,0.08911831,-0.089345399,0.000375966,0.133825293,-0.094962101,-0.134565062,0.064743752,0.020943656,0.028076043,-0.313422231,0.004741888,0.169785124,-0.139012556,-0.019416806,0.057382384,0.18558283,-0.236040733,0.11926422,-0.04598119,-0.194000274,0.009877256,0.032689481,-0.210923834,0.177911514,0.168841107,-0.179140987,-0.224277545,0.002950301,-0.09034074,0.140487464,0.220414894,0.105428274,-0.060258433,-0.093623219,-0.069409589,-0.22045383,0.173786737,-0.098971256,-0.036839549,-0.076221573,-0.131210566,-0.044107164,-0.123461216,-0.087558863,0.033388094,0.007327046,0.084494813
CC028cs,0.107370035,-0.11532703,0.053945112,-0.01267247,0.11900663,-0.046721079,0.043967584,0.08642758,0.187027467,-0.088549222,0.015514561,-0.047310259,0.069018731,-0.056093239,-0.037052385,0.091763702,-0.033906228,0.117320283,0.278176634,0.148790989,0.446178266,0.07371816,0.22747368,-0.021030418,0.120165641,0.114086251,0.283372701,-0.096819461,0.10238957,-0.020725261,0.384213603,-0.104095793,-0.145962756,0.233278787,-0.13775129,0.065813483,-0.004983464,0.012553784,-0.003895802,-0.147132725,0.042063754,-0.051096262,0.035187307,-0.060757954,-0.151443625,0.043656879,-0.025806362,0.007731099,-0.014370608,-0.114989991,-0.008092451,0.108743725,0.08007519,0.065846748,-0.052823224,-0.103130351,0.123391585,0.061881661,0.037660177
CC031cs,0.14115209,0.077465127,0.005355772,0.139915386,0.019960185,-0.118615899,0.034823692,0.134401235,-0.057846589,0.201923672,0.064657863,-0.054236355,-0.090824473,0.071286938,-0.029993275,-0.088195009,-0.129630437,-0.231231546,-0.058731982,0.033032968,0.003058401,0.024894267,-0.187141804,-0.055998289,-0.026698402,-0.171293377,0.174853902,-0.004155221,0.185608354,-0.043840873,-0.088539686,0.297339957,-0.321969105,0.200903922,-0.202376941,-0.020131795,-0.143810445,-0.057044786,0.043761558,-0.186273211,-0.058341812,0.333891877,0.015342841,-0.105364665,0.061153897,-0.176362868,-0.10239837,0.130558908,0.192389459,-0.022806147,-0.08058568,-0.061929524,-0.015966389,-0.044833765,0.210927617,-0.097785622,-0.015140929,-0.001177411,-0.040745848
CC032cs,0.07203391,0.195069004,-0.179902624,-0.084259617,0.152823794,-0.012965508,-0.260373382,-0.060786269,0.144203352,-0.19882966,0.04333087,-0.145884842,-0.041901039,0.070276248,0.028174139,-0.142251066,-0.116240837,-0.12862779,0.008502306,0.032060541,-0.115783835,-0.034290886,0.161562744,0.03615714,-0.046835972,0.015401658,-0.277941906,-0.117244838,0.147760356,-0.150655121,0.159090599,-0.026101895,0.08276884,0.153249498,-0.107707188,-0.029885691,-0.230081099,0.130807699,0.016805933,-0.060043429,-0.083799426,-0.185398964,0.140575915,0.032097485,0.094114776,-0.142369492,-0.407505102,-0.095070742,-0.016228231,0.206144782,0.048491397,-0.051214984,-0.034857383,-0.102608783,-0.055839518,0.088567047,0.07266477,-0.116534312,-0.038652193
CC033cs,-0.114544273,-0.034723195,0.066172789,-0.10966977,-0.118483439,-0.185680515,0.066735911,0.0846915,-0.24844007,0.014826468,0.08300277,0.119474955,0.037254039,0.069902072,-0.208090871,-0.086485888,-0.174493736,0.195679864,-0.38515394,-0.058932077,-0.03278758,-0.083984061,0.153546309,0.067925865,0.058433124,-0.020105442,-0.27665724,0.087783353,-0.003515671,-0.02918204,0.226657076,0.052626933,-0.012031602,0.039172497,-0.445455943,-0.124649962,0.13466758,-0.01738312,0.046202953,-0.121883367,-0.154581203,-0.102085711,-0.009067877,-0.004724111,-0.029793543,0.144653438,0.124940579,0.014840317,0.000550522,-0.066348856,-0.072370787,0.011920947,0.10963421,0.008147396,0.005107995,-0.041244971,0.147646334,-0.012036271,-0.018432714
CC034cs,0.130059363,-0.147512983,-0.077799943,0.145453686,0.036653038,-0.026690241,-0.050914962,-0.03188028,-0.127897877,-0.167380983,0.138538324,0.142718252,0.231426161,0.135847478,0.059194312,-0.161244463,0.201502146,0.043578327,-0.041411051,0.055057941,-0.103688724,-0.196561163,0.19884862,-0.214217205,-0.008367125,-0.289378307,0.138900149,-0.071351796,0.167678175,0.233914741,-0.160728824,-7.98E-05,0.238854446,0.227645461,-0.017095891,0.160653072,-0.170009935,-0.043360791,0.082049695,0.046297741,-0.012777824,-0.085842841,0.012087773,0.154324024,0.114625108,0.013637633,0.111886091,0.030650003,-0.130747919,-0.068166266,-0.047800163,0.111242422,-0.072131737,0.047117716,0.140906452,-0.116539431,0.152232413,0.074299093,0.072146469
CC035cs,-0.013425505,-0.086316863,-0.031570377,-0.055221376,-0.007504706,-0.140700716,-0.246154007,0.152632808,-0.033578227,-0.10331886,-0.035656268,0.080312717,0.216137315,0.215295964,0.503765781,0.153870129,-0.104871046,-0.068915511,-0.022369547,0.278445694,0.008293295,0.106889265,-0.099805958,0.070972532,0.025441287,-0.047987711,-0.087081628,0.19479839,0.158158269,0.023737284,0.060981643,-0.078244459,-0.145467444,-0.294383568,-0.034534244,0.135125617,0.046241841,-0.00449145,0.252868774,-0.042829781,0.06450852,-0.027805378,0.121711145,-0.037877257,-0.002836174,0.053249537,0.097351579,0.080154545,-0.002231221,0.103614264,0.061223376,-0.115381729,0.098198493,0.08824005,0.059014048,-0.04569684,-0.036675683,-0.033334703,0.044354221
CC037cs,0.149523922,0.001266414,-0.057167259,0.129137611,-0.115153901,0.062252258,-0.115799787,0.045098939,-0.02154013,0.139236561,0.23731808,0.069926498,0.148238616,-0.031169612,0.134401502,-0.048342286,0.159385956,-0.024853637,-0.23285128,0.037996195,0.147058673,-0.252803321,-0.073478977,-0.264993801,-0.01697201,-0.021989097,-0.068893731,-0.286844444,-0.090270368,-0.111341961,-0.021768964,-0.066425668,-0.065105817,0.059110857,0.206112246,-0.073231347,0.133261404,-0.005086951,-0.082191052,-0.199091234,0.030902369,-0.165527029,0.033343748,-0.352165438,-0.18436107,0.073263472,-0.043336123,0.083262804,0.014850649,-0.008747786,-0.071712332,-0.128575751,0.172158469,-0.08809796,-0.158093981,0.105129426,-0.085195736,-0.133749781,-0.051624846
CC038cs,-0.096129832,-0.030346324,-0.043776862,-0.050796831,-0.062708649,-0.205951002,0.167366173,-0.08621258,0.026496811,0.12572044,0.086307811,0.134907909,0.024861136,0.31247316,0.062539479,0.241228841,0.123371006,0.075444849,0.224394956,0.223516335,-0.288074488,0.060769641,-0.120365168,-0.224644953,0.176841938,0.223222784,-0.159897599,0.07731435,-0.123076126,0.056357745,0.019625282,-0.096223982,-0.069185815,0.354185285,0.08635566,-0.138158267,0.064184267,0.055208734,-0.106175478,-0.070164953,-0.187560502,0.088963705,-0.104260988,0.066365342,0.010435481,-0.04703552,-0.103277564,0.043637837,-0.078430704,0.018860378,0.08354358,-0.011986706,-0.008473489,-0.080050476,0.017218557,-0.02745065,0.075190776,-0.06544515,0.055318401
CC039cs,0.085149209,0.290627056,0.095651014,-0.048357499,0.032748662,-0.074801268,0.034894413,-0.036164218,-0.19914603,0.079077255,0.080599182,0.00148959,-0.036742178,-0.085927326,0.043253104,0.035759563,0.083312934,-0.047781238,0.022443897,-0.009787737,0.191725703,0.004125681,-0.022618838,0.007244865,-0.169939546,0.123361136,0.064709126,0.003043809,-0.10381037,0.199258824,0.141322913,-0.113185936,0.159323498,-0.04643213,-0.072911216,0.033848257,-0.120716136,0.080897373,-0.081802901,0.04161047,0.152784287,0.008815092,-0.070421574,0.067017745,0.065877027,-0.035773326,0.119778722,-0.032332831,-0.077616188,0.098640617,0.084201524,-0.362683506,0.22641665,-0.403889805,0.302235222,-0.130835217,0.137377454,-0.116486248,0.132228113
CC040cs,-0.261696074,-0.05949444,-0.038423274,-0.030566495,0.093195432,-0.200782386,-0.056371704,-0.009288889,0.078326636,0.139664776,-0.015048755,0.020762696,-0.023429264,-0.187712337,0.01204306,-0.049418839,-0.010582435,0.040585018,-0.311193016,0.107624244,-0.053913276,0.172309037,-0.066539919,-0.053970314,-0.060066163,-0.101791468,0.010448551,-0.106047795,-0.015308986,0.015910111,0.087906787,0.061893361,-0.003379259,0.022648983,0.133422318,0.255148418,-0.065412078,0.075662809,-0.154220084,0.146844429,0.01602702,-0.092095427,-0.156698357,-0.085256818,-0.174673473,-0.090714315,-0.15273879,-0.035136507,0.203616551,-0.084436006,0.214184637,0.053280578,-0.010823817,0.188214478,0.093727144,-0.006821947,0.19005706,-0.0382282,0.446360759
CC041cs,-0.207528305,-0.066778768,-0.007334167,-0.149827972,0.170614613,-0.221928556,-0.112552598,-0.012667049,0.099306156,0.054721101,0.049612384,0.006604672,-0.149666708,-0.207782496,0.013272445,-0.059361164,0.037907101,0.147699694,0.045756618,0.220879612,-0.068857921,-0.143097816,-0.052549307,0.085663427,0.05488425,-0.012207721,0.155416816,-0.040507435,0.147640609,-0.118322263,-0.118833507,-0.061013327,0.193003048,0.05298051,0.012180634,-0.180063021,-0.150303261,-0.179283143,0.00713063,-0.245605725,0.019530677,0.150549763,-0.005949661,-0.053692487,0.167591094,0.282134054,0.221253588,-0.114702356,0.130128243,0.270297979,-0.127905673,0.015023985,0.035930258,-0.109571005,-0.118558557,0.070953013,-0.08652528,-0.021048404,0.178052393
CC042cs,-0.308423741,0.011605432,-0.032260404,-0.062699236,0.061739916,-0.011056777,-0.022247512,-0.040667944,0.038685069,0.09152977,0.095357648,0.070244109,-0.048414847,-0.18055288,0.114385331,0.04616155,-0.088783987,0.091759797,-0.115879087,0.197598422,0.000676289,0.033931705,0.081040338,0.089534302,-0.142763689,-0.068938454,0.076776583,-0.054923725,-0.000882192,-0.012233273,0.007057465,-0.008096828,0.067065569,0.161485664,0.182785662,0.135989589,0.015582994,0.092674559,0.07172288,0.085885444,-0.132695555,0.124309261,0.145846745,0.130153304,-0.14978641,-0.018450241,0.028312475,0.110694922,0.00318698,-0.074308286,-0.005771293,0.006064208,0.11147567,-0.126412724,0.148759932,0.138707876,0.125772107,0.083677228,-0.625835314
CC043cs,0.152315719,0.025303881,-0.095909634,-0.060811514,0.11006756,-0.221875075,0.131836736,0.047648451,0.004426414,0.209118167,-0.184803972,-0.025820076,0.236405238,-0.06500647,-0.233171933,0.164499041,-0.243128729,0.011790572,-0.162576201,0.080462896,0.002988292,0.111922963,0.024372857,-0.060944574,-0.012330522,-0.17475993,0.225037588,-0.040593795,0.101623065,0.098886932,-0.074401445,-0.099132515,-0.104837025,-0.110623135,0.147699723,-0.055970359,0.011446018,-0.06733914,-0.100033999,-0.054807337,-0.153074338,-0.311083856,0.000418423,0.223468372,0.221019817,-0.039259556,-0.057748518,0.096767246,-0.142908717,0.044274773,0.081407743,-0.147166488,-0.010108837,-0.103794547,-0.238692919,0.001540121,-0.109875886,-0.013205514,-0.069657648
CC044cs,0.113697479,-0.038664356,-0.106280799,-0.048601761,-0.184281333,0.070540198,-0.04956929,0.165988757,-0.025798142,0.043256461,0.374279122,0.060561289,0.102855644,-0.144981333,0.02102464,0.081086554,0.120845379,0.166279562,0.019716196,0.04568837,-0.268988453,0.241206491,0.264769291,0.182144675,0.096024816,0.073409647,0.152725095,-0.313260611,-0.073439548,-0.014862007,-0.091044158,0.127706471,-0.188486879,-0.212681258,-0.14283005,-0.133860341,-0.031598701,0.027581063,-0.138468133,-0.027714338,0.113497391,0.065262247,0.029954761,0.095446217,-0.033501328,-0.030662879,-0.060178448,-0.076618239,-0.108781852,0.184777914,0.112740627,-0.019692672,-0.044060084,0.062989196,0.136924922,0.058797092,0.004146437,0.080969677,0.001557163
CC045cs,0.019476693,-0.143054446,-0.231909637,0.035245824,-0.035587998,0.126551118,0.166707706,0.305209642,0.03297328,0.152271278,0.114857105,-0.050306894,-0.105550049,-0.071481065,-0.159002593,0.110240036,0.028249869,-0.197325292,0.072156261,0.075219155,-0.072045437,-0.106053642,-0.098397017,0.033632659,-0.266165542,-0.058023981,-0.124419078,0.259824535,0.100760567,0.063023734,0.142165876,-0.158164741,0.032796824,-0.032083056,0.062290576,-0.177638637,-0.333078186,-0.007941592,-0.01713563,-0.042535755,0.03158333,-0.180714965,-0.112614205,-0.092845276,-0.13084015,0.127229789,0.004148531,0.027696756,-0.157708606,0.068100631,0.043058637,0.136061298,0.137219112,0.187325389,0.188669052,0.047323416,-0.001262359,0.120497092,-0.04441071
CC046cs,0.146700563,-0.041826765,-0.211490267,0.078450477,-0.123937171,-0.171304089,-0.05666206,-0.016527353,0.153260047,0.073942526,0.240248529,-0.211132639,-0.144047401,-0.020936453,-0.034314342,-0.177694354,0.076454743,0.264372337,-0.043261867,-0.021711679,0.036341789,0.057193018,0.077614528,0.092160421,0.183111423,-0.12687669,-0.039419597,0.263693943,-0.091079887,-0.073237816,0.093692571,-0.130711096,-0.11023964,-0.041411021,0.156892905,0.062546657,-0.01884909,-0.048361794,0.209086373,0.259075621,0.047724633,0.03971537,-0.214185951,-0.196008519,0.1710239,0.040401579,-0.035234227,0.173844495,-0.020468683,0.005499363,-0.014570545,-0.080740981,-0.173400194,-0.194736987,-0.066105979,-0.178818313,0.097568273,0.023691801,-0.083762807
CC047cs,-0.135294875,-0.114478705,0.081831992,-0.200103914,0.062445993,-0.093099416,0.093821579,0.113028973,-0.012894044,-0.038584424,0.243460452,-0.038825587,0.087212327,0.011900496,-0.039044646,0.003770895,0.318728644,-0.103697703,-0.015991018,-0.154179049,0.315171321,-0.027073773,-0.14386513,0.201987129,-0.130287143,0.032468883,-0.039961176,0.009120845,0.049793382,0.079349599,-0.07494421,0.258705943,-0.093840599,-0.021376064,0.192949618,-0.057117937,0.054856358,0.075160122,0.255977155,-0.040527495,-0.342385859,-0.030805069,0.103500133,0.119548007,-0.072509357,0.003953504,-0.120268484,-0.120816975,-0.146103102,0.121514264,-0.034231826,-0.039612014,-0.166151412,-0.060757288,-0.096771974,-0.084803182,0.109313522,0.00657139,0.123409117
CC051cs,0.003361148,-0.030654082,0.110981981,0.176232985,0.140087957,0.236359002,-0.039707167,-0.094380505,0.052093396,0.382176441,0.196990983,0.085152586,0.143926099,0.10671756,0.113931516,0.035887941,-0.069718988,-0.026362775,-0.097957751,0.014761855,0.007658629,-0.064429836,-0.026977913,0.083695577,0.131592339,0.245327258,0.104589906,0.002304124,0.063181569,-0.230644047,0.177468588,-0.016961975,0.179525466,-0.128799141,-0.090763328,0.005496648,-0.282216649,-0.03386177,0.139164807,0.081978691,-0.224198421,0.003474912,-0.154504221,0.104811103,0.062067455,-0.134898361,0.089848163,-0.063743713,-0.050444454,-0.239799918,-0.059877301,-0.111996498,-0.139632079,0.020931989,-0.073619367,0.178506275,-0.0220368,0.020514348,0.078606642
CC056cs,0.027021307,-0.052319844,0.12838426,-0.184472988,-0.005304748,0.0887063,0.01589706,-0.060139787,0.044035463,-0.041273531,-0.028425677,0.483678494,0.020151421,-0.27905705,0.037499397,-0.013785769,0.000660121,-0.064646317,0.143310195,-0.169329784,-0.04662768,0.192480902,0.040313485,-0.065962309,-0.066217721,-0.323187513,-0.161741368,-0.029653513,-0.024856717,-0.010339848,0.034092297,-0.334800031,-0.219736134,0.053521932,-0.037740039,-0.048465723,-0.110575731,-0.109865474,0.157364163,-0.011513168,-0.111849544,0.060385938,-0.088748904,-0.139856352,0.001680928,-0.256027025,0.069744206,-0.109064133,-0.008296121,0.008257732,-0.111878597,-0.06144113,-0.039538647,-0.090489294,-0.057944048,0.060567394,0.039626835,0.018305329,0.049079334
CC057cs,0.009845775,-0.151908344,0.067159807,-0.212178023,0.019693339,0.06081293,-0.022991331,0.074167329,0.095098373,-0.095662758,0.255637244,-0.073988384,-0.088024561,0.082264528,-0.000820694,0.269329037,0.053863268,-0.092864637,-0.257556032,-0.341734583,-0.019298168,0.101792413,0.081021231,-0.22326623,-0.002104241,0.134354073,0.110179937,0.175971596,0.315543522,0.047961766,-0.070617949,-0.132913035,0.040808312,0.119956512,-0.025805239,0.046256481,0.087501615,-0.079426835,0.029699386,-0.061781464,0.207256866,0.000378723,-0.104914159,0.054470597,0.05035204,0.000363245,0.015070886,-0.103479878,0.265837543,-0.035882357,0.239626424,-0.030152747,-0.050414045,-0.083114854,-0.028019452,0.132781238,-0.024043477,-0.10055317,-0.129882942
CC059cs,0.089927775,-0.081055596,-0.067326991,0.236562317,-0.00368278,-0.17901356,0.00140253,0.015600489,0.076609624,-0.094141029,0.239035761,0.177431405,-0.071950158,-0.125126761,-0.065897808,-0.314751196,-0.243557846,-0.197386282,0.025254193,0.019363309,-0.042066823,0.422118099,-0.040552669,-0.215167608,-0.084843898,0.239362559,0.072467491,0.184912129,-0.159937314,0.030333172,0.014076055,0.089990353,0.228806001,0.002587789,0.064506008,-0.019415513,0.091716011,0.051664109,0.082601095,-0.134239327,-0.003981548,-0.091604325,0.190544843,0.032885632,-0.092785186,-0.00293423,0.155745686,-0.054690096,-0.043371326,0.039189806,-0.063325745,-0.026547266,-0.072937174,0.031000299,-0.069089388,-0.028289812,-0.044042791,-0.051148744,-0.00031074
CC061cs,0.096125466,-0.104333599,0.077902035,0.203299915,0.024483587,-0.076619894,-0.056190444,-0.172544084,0.076047205,0.02562925,-0.076165886,-0.170018296,0.068751583,-0.032643148,0.064084131,0.259444986,0.077508497,-0.013529368,-0.145307631,-0.065982869,-0.126883239,0.160114406,-0.02742787,0.254096191,-0.279784089,0.078397435,0.028442992,-0.126121398,0.034452812,0.060218608,0.042029331,-0.054243572,0.203638998,0.120878895,-0.087439322,0.052459708,0.215917048,-0.014480227,0.011890214,-0.138037471,-0.130583047,0.013490072,-0.171603002,-0.359422302,0.183067376,-0.182676639,0.065279973,-0.072296346,-0.161412876,0.175889519,-0.099819733,0.107553426,0.029988319,0.122652398,0.025276341,-0.174658683,0.055856096,0.030734631,-0.104525242
CC065cs,-0.183427112,0.009208359,0.064810606,0.01017824,0.244008059,-0.222400931,-0.177576447,0.021472466,0.157888517,-0.179314947,0.145767825,0.037203998,0.150626097,0.000604692,-0.158910692,-0.043976139,0.097986835,-0.068462102,0.078539039,-0.045252631,0.04642614,-0.080891573,-0.200028138,-0.000845369,0.22166279,-0.023854115,-0.056204654,0.102905795,0.088886934,0.12122723,-0.043151148,0.037761572,-0.070495029,-0.210288294,-0.130929437,0.009563483,-0.063002645,0.124912027,-0.457648797,0.013111761,0.048226578,-0.033245935,-0.081746697,-0.202557044,-0.00177337,-0.171658232,0.161112264,0.025162009,-0.18823354,-0.102459301,-0.063240253,-0.029636126,-0.111481208,-0.007573811,0.040490586,0.103542372,0.035825233,-0.00635088,-0.225909748
